[
  {
    "type": "convolutional",
    "params": {
      "filterSize": 4,
      "numFilter": 3,
      "padding": 0,
      "stride": 4,
      "inputSize": [
        256,
        256,
        3
      ],
      "kernel": [
        [
          [
            [
<<<<<<< HEAD
              -0.21922933511522946,
              -0.2541611363909916,
              0.11752139433439815
            ],
            [
              -1.0318311814249401,
              0.7687639983989341,
              -0.6659614458866839
            ],
            [
              0.11861310556743637,
              1.5750120918855228,
              0.8373605991622187
            ],
            [
              0.9366910756055582,
              -0.6253653141234313,
              -0.3087573805474249
=======
              -0.4633606999892407,
              0.9238686415664529,
              -2.214117567247601
            ],
            [
              -0.006791128252027704,
              0.6085699121812578,
              0.140637234669563
            ],
            [
              0.18896556097706022,
              0.1686078325314307,
              0.5970441991611729
            ],
            [
              0.6644020017505148,
              -1.4426047243869582,
              -0.32772682366449274
>>>>>>> fbec65a77c7ae869c87f18a14c6e226c96c9f11e
            ]
          ],
          [
            [
<<<<<<< HEAD
              1.0838991798386874,
              0.7828679084770153,
              2.6488776941769414
            ],
            [
              -0.8109437717758483,
              0.9206303666680632,
              -1.5525944680850652
            ],
            [
              -0.4470758649526675,
              -0.15867436591909392,
              0.43120802237137007
            ],
            [
              -0.5052115582812764,
              -0.7825436167583407,
              0.7676671239382424
=======
              -1.3527012583249975,
              0.26582010694374447,
              -1.7617589795446165
            ],
            [
              0.900959200325405,
              -1.5620603873967034,
              -1.6414892429262045
            ],
            [
              -1.5528374233352353,
              1.2658563274190477,
              -1.15118621734476
            ],
            [
              1.0788617346781686,
              -0.6092935115583843,
              1.2132933574345242
>>>>>>> fbec65a77c7ae869c87f18a14c6e226c96c9f11e
            ]
          ],
          [
            [
<<<<<<< HEAD
              -0.3672572477965718,
              -0.9128043308742632,
              0.36717169787366155
            ],
            [
              2.003824433439593,
              0.057364040281118786,
              -0.5519412906434001
            ],
            [
              2.3080935311282658,
              1.2036012183422413,
              1.0681962706605783
            ],
            [
              -0.3915063309719167,
              0.5638560120475349,
              0.9430346377640171
=======
              -1.7580095231048056,
              -0.6419017896568027,
              0.633838692762984
            ],
            [
              -0.13647497171791295,
              -0.9513699107931453,
              -0.3631925498725588
            ],
            [
              -0.13415555899768436,
              -0.3282049693514281,
              -0.01511424436906802
            ],
            [
              0.8857979190143873,
              0.6321509942286558,
              0.8239001396950045
>>>>>>> fbec65a77c7ae869c87f18a14c6e226c96c9f11e
            ]
          ],
          [
            [
<<<<<<< HEAD
              -0.29664626296771146,
              0.010392039843876343,
              -0.8007889909586399
            ],
            [
              -0.06498087019109419,
              -0.6800229304515762,
              0.3447070587840584
            ],
            [
              -1.2090116974102338,
              0.7477453574662802,
              0.2944785311375471
            ],
            [
              -0.6668950344724155,
              -1.5658796185879018,
              -0.24745592366515476
=======
              1.4201198625818001,
              -0.2709821626129465,
              -0.8931787428788989
            ],
            [
              -1.0472639019768446,
              0.7045070339578152,
              0.18293741744040945
            ],
            [
              -0.32939411074009506,
              0.18957540479859075,
              0.1858567245609412
            ],
            [
              -0.1316788952737428,
              1.0765035839549484,
              -1.902847461752409
>>>>>>> fbec65a77c7ae869c87f18a14c6e226c96c9f11e
            ]
          ]
        ],
        [
          [
            [
<<<<<<< HEAD
              -0.2565307252748237,
              -0.005332844303434845,
              1.0603986195199753
            ],
            [
              -1.2434403945827246,
              -1.4523984368783034,
              0.6319179021702953
            ],
            [
              2.1679557374790486,
              -0.9267971909167507,
              -0.12040152588409372
            ],
            [
              -0.2022510537851634,
              2.96478511756223,
              1.0219221484027214
=======
              -2.487219369382688,
              0.9190054851648124,
              1.1649577162536917
            ],
            [
              0.4543148271068922,
              -1.4193811715674716,
              -0.1526788362794523
            ],
            [
              0.6994464760606222,
              -1.2225326540484158,
              -1.2224827483498621
            ],
            [
              0.5754429548343262,
              -0.8878468045971213,
              -0.4612171282504774
>>>>>>> fbec65a77c7ae869c87f18a14c6e226c96c9f11e
            ]
          ],
          [
            [
<<<<<<< HEAD
              -1.2871086919638532,
              0.8425695065273447,
              -1.1817498041429848
            ],
            [
              1.3741341647487066,
              1.5401300347060105,
              -1.1126187487076054
            ],
            [
              1.2066741227491284,
              0.8090904100008657,
              -0.4550801735910898
            ],
            [
              -0.6939331891324545,
              -0.4441399991963178,
              -0.3447428856760634
=======
              -1.6788742482677912,
              0.09844787362654418,
              0.1662148566017748
            ],
            [
              -0.4376202578405135,
              1.170893380650292,
              -0.6439319328250763
            ],
            [
              0.4001279787777306,
              -0.9208515555462088,
              -0.8115636700357427
            ],
            [
              0.5363402643689541,
              -0.08776080949483618,
              -0.4292965496346344
>>>>>>> fbec65a77c7ae869c87f18a14c6e226c96c9f11e
            ]
          ],
          [
            [
<<<<<<< HEAD
              -0.5673109155837687,
              0.6932437148073066,
              -0.7987796991723766
            ],
            [
              1.680620741698659,
              -1.712463844053062,
              -0.1170914728939276
            ],
            [
              -1.2362552611591549,
              -0.21932799096544145,
              0.28351258435626236
            ],
            [
              0.8834794676630845,
              0.20037530956039484,
              -0.46339011680333214
=======
              0.4139318047762491,
              -0.25938053443044595,
              0.8594266393482761
            ],
            [
              0.6925511672489274,
              -0.5561031814498979,
              -2.0457147141851832
            ],
            [
              0.7820868647440319,
              -0.31360993329075826,
              1.1030672664803243
            ],
            [
              -1.914222439497022,
              -0.3643192368968383,
              0.11341566360944706
>>>>>>> fbec65a77c7ae869c87f18a14c6e226c96c9f11e
            ]
          ],
          [
            [
<<<<<<< HEAD
              0.041710923459118296,
              -1.5770347978726953,
              0.21588488348730037
            ],
            [
              0.06365075736225628,
              0.6265308750954923,
              0.3051832209483092
            ],
            [
              0.25213895568401523,
              -0.49998626950169783,
              -0.4382302108854987
            ],
            [
              0.7279573167832187,
              0.4494281785445635,
              0.3281829102062043
=======
              0.26826117572762426,
              0.4741021565868223,
              1.4789264879353066
            ],
            [
              -1.5904208837638598,
              1.297893157302339,
              -0.4519985886468239
            ],
            [
              -2.2598308543117467,
              -1.09191821596668,
              -0.1549206960174261
            ],
            [
              1.0060213209589337,
              1.606317525814656,
              0.5254197199559236
>>>>>>> fbec65a77c7ae869c87f18a14c6e226c96c9f11e
            ]
          ]
        ],
        [
          [
            [
<<<<<<< HEAD
              0.16865457324519173,
              1.459907125233429,
              2.1150962795662958
            ],
            [
              0.32303965724572714,
              2.082276573701188,
              0.12320347666344277
            ],
            [
              2.4172143960167265,
              -0.02348733757067242,
              -0.0113501251362634
            ],
            [
              0.9946277533880188,
              -0.9786496502074669,
              -0.7792033283596871
=======
              -0.09984949127748632,
              -0.5818605263346801,
              0.1700813144362681
            ],
            [
              1.6384260394598722,
              -1.5704094868225666,
              -0.12662320964194163
            ],
            [
              -1.81687987525366,
              -2.3383137556997973,
              -1.7472215562556463
            ],
            [
              -0.3471526520376677,
              -0.869221372307883,
              -0.3395392582339373
>>>>>>> fbec65a77c7ae869c87f18a14c6e226c96c9f11e
            ]
          ],
          [
            [
<<<<<<< HEAD
              -0.09484167990165818,
              -0.26665537363173764,
              0.7124789527420409
            ],
            [
              0.7161890007598919,
              0.8032181992650433,
              -0.7444502610107699
            ],
            [
              -0.2797000371456939,
              0.30426239716360937,
              1.1884588084598677
            ],
            [
              -0.47203696570156767,
              -0.006155077105098402,
              -0.5471737120480563
=======
              -0.46644745692298933,
              0.6934397598330173,
              -1.4021309567598264
            ],
            [
              0.15557347488139384,
              -0.01534642784672387,
              0.5107672270013492
            ],
            [
              -0.2089223900800149,
              -1.3569958800239217,
              -0.9954484948203749
            ],
            [
              -0.2102892648137533,
              -0.13323328686152092,
              1.7428763076467586
>>>>>>> fbec65a77c7ae869c87f18a14c6e226c96c9f11e
            ]
          ],
          [
            [
<<<<<<< HEAD
              -0.4510786560224212,
              0.358028327380297,
              0.3199252769487887
            ],
            [
              0.3883110417979454,
              -0.15191368647539863,
              0.0771270365916801
            ],
            [
              -0.9077451324745455,
              0.29424092416865916,
              0.7246152407249227
            ],
            [
              1.695117532473024,
              0.551046058858136,
              0.08932461601037579
=======
              -0.8378308641429744,
              0.46993119663237387,
              0.40640874761959617
            ],
            [
              0.9028716436267645,
              0.46223361641403493,
              0.23092452777501232
            ],
            [
              1.661507718676328,
              0.23573880745845974,
              0.7007447410446005
            ],
            [
              0.5646349458086787,
              -2.0356712043579175,
              -1.8721553712971288
>>>>>>> fbec65a77c7ae869c87f18a14c6e226c96c9f11e
            ]
          ],
          [
            [
<<<<<<< HEAD
              -1.0441443528728969,
              -0.1198353701717266,
              -0.22831684478313213
            ],
            [
              0.8381786580579909,
              -1.4352416311170246,
              1.4771524317870255
            ],
            [
              -0.2916076856093777,
              1.8367614712613776,
              0.6887437994602124
            ],
            [
              -1.1504950152471478,
              0.6067080403532026,
              -1.7906356526489025
=======
              -1.2711225667863677,
              -2.0840236666219534,
              1.9053656959703846
            ],
            [
              -1.4947123207154955,
              0.37438684996263927,
              -0.33605911079122236
            ],
            [
              -0.7012972919715899,
              0.8278329308596607,
              -1.6976770917312614
            ],
            [
              0.714796522574549,
              1.053665064876642,
              1.0274210027010378
>>>>>>> fbec65a77c7ae869c87f18a14c6e226c96c9f11e
            ]
          ]
        ]
      ],
      "bias": [
<<<<<<< HEAD
        2.7404752683929948e-133,
        4.079195017682475e-133,
        8.20600653342156e-133
=======
        1100.797882542797,
        4982.703934280471,
        117.27943698516043
>>>>>>> fbec65a77c7ae869c87f18a14c6e226c96c9f11e
      ],
      "mode": "max"
    }
  },
  {
    "type": "max_pooling",
    "params": {
      "filterSize": 4,
      "stride": 4,
      "mode": "max"
    }
  },
  {
    "type": "convolutional",
    "params": {
      "filterSize": 4,
      "numFilter": 6,
      "padding": 0,
      "stride": 1,
      "inputSize": null,
      "kernel": [
        [
          [
            [
<<<<<<< HEAD
              1.9304765208212404,
              -0.9218538567332855,
              0.6970140871319924
            ],
            [
              -0.10239536918883499,
              -1.0420900023983861,
              0.08029749601939931
            ],
            [
              0.8090505309406844,
              -0.039415541800917865,
              -0.6641716139465523
            ],
            [
              0.2719973674277511,
              0.2171656760410963,
              0.3605038509351845
=======
              0.8371681980106044,
              -1.390779382719694,
              0.627733227826385
            ],
            [
              1.106258461984093,
              -0.27765863089661963,
              1.7858064920227783
            ],
            [
              0.8707509387174267,
              -2.018572716912183,
              -0.8456689696472237
            ],
            [
              0.3801292565029843,
              -0.3643043569339334,
              -0.23497332996877957
>>>>>>> fbec65a77c7ae869c87f18a14c6e226c96c9f11e
            ]
          ],
          [
            [
<<<<<<< HEAD
              0.48917320998873787,
              0.5875677019111458,
              -1.071977999752755
            ],
            [
              -0.3066548060232118,
              0.4195701334716148,
              0.8280611087527057
            ],
            [
              -0.28410868434853903,
              0.16285143746976044,
              -1.5999098363675301
            ],
            [
              -0.029665697947653273,
              -0.6863213454071371,
              1.9199673072808192
=======
              1.217709188351268,
              -0.09205213792793705,
              0.45293562965159706
            ],
            [
              -0.5791955157167542,
              0.9832110328832349,
              0.8631612445104966
            ],
            [
              -0.47120012452782656,
              -1.8702310945323388,
              0.5227454129229866
            ],
            [
              1.2228611534707676,
              1.0651674346685458,
              -0.18646926519082493
>>>>>>> fbec65a77c7ae869c87f18a14c6e226c96c9f11e
            ]
          ],
          [
            [
<<<<<<< HEAD
              -1.460640163078029,
              0.6571241791719351,
              -0.9893247222038376
            ],
            [
              -1.1132162017821967,
              -0.5812362713309774,
              -0.12333309914460838
            ],
            [
              0.36980150341634654,
              -0.6728430508763805,
              -0.5026622641578709
            ],
            [
              0.4535550902387103,
              1.424787214055771,
              -0.2490000264392498
=======
              -0.46626656337076705,
              -1.2025795568492892,
              0.05234285418284683
            ],
            [
              -1.4135484106235008,
              0.9953472201391342,
              -0.4224648211336954
            ],
            [
              -1.5615841111396576,
              -0.8480292481498536,
              0.17938966436037243
            ],
            [
              -0.5275624850617271,
              1.1683035417652714,
              -1.5085761478663375
>>>>>>> fbec65a77c7ae869c87f18a14c6e226c96c9f11e
            ]
          ],
          [
            [
<<<<<<< HEAD
              0.29735158763800207,
              -0.5165998203039371,
              0.10189666875203995
            ],
            [
              -0.1017380543475025,
              0.183767111633831,
              -1.0466065324034004
            ],
            [
              -2.007144560824745,
              -1.564293475845629,
              1.4365204706240124
            ],
            [
              0.9633726059515765,
              -0.5764642068954339,
              0.46864759898140174
=======
              -0.7019520793625051,
              -1.0415708065653655,
              -1.0831736539788686
            ],
            [
              -1.8678104418630477,
              0.11687431145732734,
              0.9102069098592788
            ],
            [
              1.5041148951903591,
              -0.42352069436224216,
              -0.6021117601098218
            ],
            [
              -0.22777126473048706,
              -1.339156670199052,
              0.9040635800360906
>>>>>>> fbec65a77c7ae869c87f18a14c6e226c96c9f11e
            ]
          ]
        ],
        [
          [
            [
<<<<<<< HEAD
              0.932843328093227,
              0.1598714961860599,
              -1.9698602266687797
            ],
            [
              -0.09607732414556464,
              1.0834855687858511,
              -0.755260568965466
            ],
            [
              0.41550635817806736,
              -0.19912455487302377,
              -1.5900157432081614
            ],
            [
              -0.07386731275235639,
              -1.2676314223990783,
              1.3163889929643555
=======
              1.0738264960575328,
              0.26217795860517956,
              0.01805992864100975
            ],
            [
              720.1061034055332,
              1.4185259493321547,
              -0.49636559140939823
            ],
            [
              881.2491529467569,
              4111.203693069889,
              1.3065177046520635
            ],
            [
              1997.9889942391799,
              -1.3601544258931386,
              0.015752789595381393
>>>>>>> fbec65a77c7ae869c87f18a14c6e226c96c9f11e
            ]
          ],
          [
            [
<<<<<<< HEAD
              0.21715019127489218,
              0.5070765234450323,
              -0.1341066031960417
            ],
            [
              -0.7445421378415491,
              0.7959863079696309,
              -0.19271682050261055
            ],
            [
              1.0194349925819453,
              -0.9892485152194588,
              0.8692498111921036
            ],
            [
              0.6430654542378091,
              0.39805062240721645,
              0.45634244748963065
=======
              -0.11438267065361214,
              -0.885254315341501,
              -0.5692277728718658
            ],
            [
              5137.424642162745,
              -0.3057521668574959,
              0.20243770477724451
            ],
            [
              0.9442251847801604,
              -0.8402234087805852,
              -1.7269613189624033
            ],
            [
              -0.2755183735430882,
              0.6723385091355293,
              2.456713973014341
>>>>>>> fbec65a77c7ae869c87f18a14c6e226c96c9f11e
            ]
          ],
          [
            [
<<<<<<< HEAD
              -1.0931169063434294,
              -0.6775163226674701,
              0.38460779558972974
            ],
            [
              -1.5716954074362584,
              -1.6546921353686934,
              1.0698809769928654
            ],
            [
              0.990564621446996,
              0.8465716818775235,
              -0.7037298361479852
            ],
            [
              -0.028293425763433386,
              -0.8438415187239379,
              0.5543852435698363
=======
              -0.9389041553507431,
              -0.11261924425351011,
              0.09907041758641637
            ],
            [
              -0.6361673457497268,
              -0.33023514200148557,
              -1.137801215717611
            ],
            [
              0.9970986944147877,
              -0.5190458663739607,
              -1.1983545533318658
            ],
            [
              1409.8132640038673,
              -0.3843881880471054,
              68.57643966043504
>>>>>>> fbec65a77c7ae869c87f18a14c6e226c96c9f11e
            ]
          ],
          [
            [
<<<<<<< HEAD
              -0.2610247554230968,
              -0.1370371566431782,
              -0.250576799682353
            ],
            [
              0.06336890391102178,
              -0.6883848497577634,
              -0.8411856651507754
            ],
            [
              0.9154913522395489,
              1.9567967913228088,
              0.7036738958389529
            ],
            [
              1.1895424759622741,
              0.2690784240893507,
              0.8239519659484362
=======
              -1.1100540761911928,
              1.0010837460223327,
              2.7450398641457094
            ],
            [
              2518.2045458966745,
              -0.31061978020989783,
              0.046248724284494135
            ],
            [
              2715.4531581638294,
              1.0121422433627574,
              1.6082948205932075
            ],
            [
              161.66861827371233,
              -0.455442999551125,
              -1.2964826532475189
>>>>>>> fbec65a77c7ae869c87f18a14c6e226c96c9f11e
            ]
          ]
        ],
        [
          [
            [
<<<<<<< HEAD
              -0.09284400151477333,
              -0.5829216738694343,
              1.6970433732031338
            ],
            [
              0.494246635768492,
              -1.1422734824349323,
              -2.078854503508015
            ],
            [
              -1.1944493500140045,
              -0.21910315539986494,
              0.1243570328056606
            ],
            [
              -0.11118457199177749,
              0.46005036148806666,
              -1.5957337202538124
=======
              -1.3484559851619746,
              1.096832959152916,
              0.5787849662071882
            ],
            [
              -2728.2047979861695,
              1.7706604688828544,
              0.34475431898744974
            ],
            [
              -3351.409995220016,
              -15607.291272182732,
              0.11183882461738329
            ],
            [
              -7585.119671301362,
              2.46293237964371,
              0.08459326566298178
>>>>>>> fbec65a77c7ae869c87f18a14c6e226c96c9f11e
            ]
          ],
          [
            [
<<<<<<< HEAD
              1.0884455641269164,
              -0.1386143498331733,
              0.06959410492673693
            ],
            [
              0.09768655611340789,
              1.5752421236140741,
              0.5232301074000263
            ],
            [
              0.8488829604525725,
              -0.34081682687344256,
              1.3053573876752402
            ],
            [
              -1.6627092504077499,
              0.9641021213933549,
              0.479676264146713
=======
              0.08629115271845346,
              -0.9379780021941119,
              -0.2618628421518553
            ],
            [
              -19503.95799535424,
              -0.7196744879101235,
              -1.2445862044319143
            ],
            [
              1.1439188713070518,
              -0.9823676736446981,
              -0.1636648456638238
            ],
            [
              0.9798032795587808,
              -1.0863571257590106,
              -1.4057304672753028
>>>>>>> fbec65a77c7ae869c87f18a14c6e226c96c9f11e
            ]
          ],
          [
            [
<<<<<<< HEAD
              0.1892351146979902,
              0.5179980959777191,
              -0.9878532600266298
            ],
            [
              0.49725697003200353,
              -1.4809953622960228,
              0.16417493837849728
            ],
            [
              0.9066655279960915,
              -2.214852621157884,
              0.6814634745974562
            ],
            [
              -0.7387583654770553,
              0.3096662578504629,
              -0.06283416085444829
=======
              1.084338228662634,
              -0.6643429362438326,
              1.7118534504058327
            ],
            [
              0.03717212616691505,
              -0.5482089551073633,
              -0.12075469788114393
            ],
            [
              -0.6425111144393996,
              -0.9345067609905522,
              0.13561705763498527
            ],
            [
              -5349.192099994347,
              -0.437915541117803,
              -266.3947652879311
>>>>>>> fbec65a77c7ae869c87f18a14c6e226c96c9f11e
            ]
          ],
          [
            [
<<<<<<< HEAD
              -1.0111644365462058,
              0.35648281549932065,
              -0.7290562139274684
            ],
            [
              -0.7542444146065511,
              -0.5740173714390112,
              1.2676196735101604
            ],
            [
              0.17980631138496306,
              -0.30112634603660726,
              -1.5578697685327971
            ],
            [
              -0.24112576643618777,
              0.4846756474074215,
              -0.1459096682635908
=======
              -0.25193708090738026,
              -0.5242256715837712,
              -2.08056045370123
            ],
            [
              -9562.424957748999,
              0.05530638770852461,
              0.21361604564817335
            ],
            [
              -10309.72756625704,
              -1.6779363875988658,
              0.3050511175038851
            ],
            [
              -611.9207964456225,
              -0.5205505500921035,
              0.8335492636670148
>>>>>>> fbec65a77c7ae869c87f18a14c6e226c96c9f11e
            ]
          ]
        ],
        [
          [
            [
<<<<<<< HEAD
              0.3377466700566741,
              0.20915932911488203,
              0.5998834546972994
            ],
            [
              0.2359388887592058,
              1.468781576636925,
              0.5127999248596443
            ],
            [
              -1.6181027895534392,
              0.6632370425249249,
              -0.4359794115407579
            ],
            [
              1.7555420730196765,
              1.3602345847974204,
              0.7780905460059905
=======
              0.8065026572982548,
              0.4444869452649226,
              -1.437310034839922
            ],
            [
              5101.706823859312,
              0.6350614541413611,
              0.5084464391861045
            ],
            [
              6267.2447295254215,
              29196.687335082763,
              -0.40158470767618426
            ],
            [
              14191.138590701194,
              -1.6130971761255863,
              0.8903254912515471
>>>>>>> fbec65a77c7ae869c87f18a14c6e226c96c9f11e
            ]
          ],
          [
            [
<<<<<<< HEAD
              1.4508682901395922,
              0.5137061792102079,
              1.8916898775566193
            ],
            [
              -1.0971396102852542,
              -2.5485332001312373,
              -0.4259579004590285
            ],
            [
              0.7046052132819306,
              -0.7374973159386954,
              -0.8949107976979243
            ],
            [
              0.36691656476108814,
              0.22244437433492012,
              -0.3533075886308492
=======
              0.1773064779727068,
              0.39802675735704973,
              -1.5306391752819795
            ],
            [
              36489.347554384556,
              -0.9196958352952446,
              0.4078423990553543
            ],
            [
              -1.1674460657531838,
              -0.11293336165349228,
              -1.4730647708260047
            ],
            [
              -0.07396993190041669,
              0.6537042620436694,
              1.081151949848766
>>>>>>> fbec65a77c7ae869c87f18a14c6e226c96c9f11e
            ]
          ],
          [
            [
<<<<<<< HEAD
              0.7475514469660939,
              1.5509326169788513,
              -0.7977552434744624
            ],
            [
              1.0274705125197872,
              -0.14074920719900608,
              0.3280326646274288
            ],
            [
              0.7346880117144469,
              0.7229566394853814,
              0.32747074658460207
            ],
            [
              0.3484238250833126,
              -0.1244696662656756,
              -0.4552314440700385
=======
              0.7586830822803171,
              0.9543963143783813,
              -1.566051397316623
            ],
            [
              1.8201725675910565,
              1.150720120641232,
              0.8710239655171432
            ],
            [
              -0.9055766973333739,
              -1.0384490580835049,
              -1.3538903340649442
            ],
            [
              10011.054177848275,
              1.234131630436152,
              498.1073545516448
>>>>>>> fbec65a77c7ae869c87f18a14c6e226c96c9f11e
            ]
          ],
          [
            [
<<<<<<< HEAD
              -0.21469449983815775,
              0.7616107733827516,
              2.6575601299334144
            ],
            [
              -0.9199886689548146,
              -0.41120991626353354,
              -1.4030172454234056
            ],
            [
              -0.2653426093611949,
              -0.18145996099748124,
              0.7827483005561623
            ],
            [
              0.3955743399786523,
              0.16963493204448582,
              -0.2933479331932682
=======
              -0.4484843198128864,
              0.6057031312699194,
              -0.6717438463816071
            ],
            [
              17889.97736048725,
              0.06547461608325601,
              1.1336594244231923
            ],
            [
              19284.67997040022,
              0.43204611992863906,
              -0.8344917688668259
            ],
            [
              1146.0385195836704,
              -0.6224905773783191,
              0.2622255221614902
>>>>>>> fbec65a77c7ae869c87f18a14c6e226c96c9f11e
            ]
          ]
        ],
        [
          [
            [
<<<<<<< HEAD
              1.0054330643623874,
              0.14029497976891092,
              -0.06774525123656823
            ],
            [
              -0.4881919677394911,
              1.3021014861751157,
              0.010803991587835137
            ],
            [
              -0.09133512841465855,
              0.49064341269408684,
              0.36199878704086336
            ],
            [
              -0.9633863852300415,
              -0.24331361065108068,
              0.4032405133684118
=======
              0.5294068835418039,
              -2.192233518337158,
              0.9039396145760953
            ],
            [
              -0.11901362298899038,
              0.018703220223197817,
              1.5969915446440914
            ],
            [
              -0.7732681120022707,
              0.2677488740628255,
              0.8223950626541271
            ],
            [
              -0.9796910168043367,
              -0.7776807200086316,
              0.3387097014177967
>>>>>>> fbec65a77c7ae869c87f18a14c6e226c96c9f11e
            ]
          ],
          [
            [
<<<<<<< HEAD
              1.5185968891740842,
              1.0805568849895173,
              -0.28998208029168554
            ],
            [
              -0.6104826715753372,
              -1.884065261608674,
              0.4905272503275891
            ],
            [
              -2.1694932370312716,
              0.08644819471654187,
              -1.1044755507875006
            ],
            [
              0.4098434367587849,
              -1.2456035401576007,
              2.146900333977074
=======
              -0.9935125884765531,
              -0.7540327302957225,
              2.2634069007997617
            ],
            [
              -2.0525573192215223,
              0.4739230967698591,
              -0.8152871070567549
            ],
            [
              3.1396813105413655,
              -0.4036517939449592,
              -0.62892772567578
            ],
            [
              -0.7182516252079926,
              -1.3998029371858756,
              0.3516988502252781
>>>>>>> fbec65a77c7ae869c87f18a14c6e226c96c9f11e
            ]
          ],
          [
            [
<<<<<<< HEAD
              1.5006384922094638,
              0.03662864435537423,
              0.4605769440094355
            ],
            [
              0.33993119314719417,
              -1.1763787040333855,
              -1.0713644401945643
            ],
            [
              1.325264097759858,
              -0.9959404802091522,
              0.28943610102234385
            ],
            [
              0.4919617859531733,
              0.4489092723245274,
              -0.7152719282205248
=======
              -1.055259952349419,
              1.4920602526470843,
              -1.015148574621298
            ],
            [
              0.3407006312159155,
              1.2842816010705174,
              -0.5598044057203102
            ],
            [
              0.6320850992134222,
              -0.42391812623974895,
              -0.2753624019382876
            ],
            [
              0.18441540866122286,
              -1.8640021902347392,
              1.9534793953274177
>>>>>>> fbec65a77c7ae869c87f18a14c6e226c96c9f11e
            ]
          ],
          [
            [
<<<<<<< HEAD
              -0.14700523359171305,
              -1.737010091538562,
              -0.595171318602449
            ],
            [
              0.4171067180063831,
              1.9407809424792952,
              0.13448417635595475
            ],
            [
              -0.6533798718408353,
              1.2379588354248625,
              0.3761602697077863
            ],
            [
              -0.34079060836117325,
              -1.104342612554075,
              0.7958250899572604
=======
              -0.41118415429053634,
              -1.9260345103376801,
              -0.8235573772793379
            ],
            [
              1.9153773604824975,
              0.6088051565258197,
              -0.3304639983766294
            ],
            [
              -1.10595454236937,
              0.8862343164833923,
              -0.6400224842981597
            ],
            [
              0.19363465155029666,
              -1.5953215846229043,
              -0.3581418282891496
>>>>>>> fbec65a77c7ae869c87f18a14c6e226c96c9f11e
            ]
          ]
        ],
        [
          [
            [
<<<<<<< HEAD
              0.5782911999466487,
              0.20341397479607187,
              1.5587749120016139
            ],
            [
              0.8819859518224752,
              0.02779425219522725,
              3.1145764708001904
            ],
            [
              0.8615040299811436,
              0.0807510143703712,
              2.1199417838014787
            ],
            [
              -0.26760175236421163,
              0.9350689693685107,
              -0.9125473956612262
=======
              1.5147950381718327,
              0.4707181598341333,
              0.1602806439200648
            ],
            [
              0.2138434901021167,
              -2.914713069124615,
              1.294624694129501
            ],
            [
              -0.010724328283975328,
              -0.5194334517939422,
              -0.10202440718225682
            ],
            [
              -0.5449901741196731,
              0.4526854007813587,
              -0.17583375078362246
>>>>>>> fbec65a77c7ae869c87f18a14c6e226c96c9f11e
            ]
          ],
          [
            [
<<<<<<< HEAD
              -0.40259030636070353,
              2.496915720769799,
              -1.2270338290047564
            ],
            [
              -1.7301175242734765,
              0.4760783112942018,
              -0.9714098972976656
            ],
            [
              -0.05550470070712105,
              -0.5293421384686376,
              -0.16956688124967792
            ],
            [
              -0.8800270768194032,
              0.11234356482934575,
              0.03271741865373034
=======
              1.211223578544097,
              1.4507973355577581,
              1.092625201981418
            ],
            [
              -1.156793098285765,
              -0.0977978632423851,
              -1.5296450308366274
            ],
            [
              0.6668724758944469,
              1.0464256584414493,
              2.0515784223172324
            ],
            [
              0.39899321462234105,
              1.0736777414807512,
              0.5562956783236894
>>>>>>> fbec65a77c7ae869c87f18a14c6e226c96c9f11e
            ]
          ],
          [
            [
<<<<<<< HEAD
              0.38397535512305436,
              0.568154940034953,
              0.34486951333401417
            ],
            [
              -1.1620163888993411,
              -0.9263733445806966,
              0.8285266296854884
            ],
            [
              -0.6218908727422938,
              -0.6578588000912913,
              -0.372264732232843
            ],
            [
              1.5112313226795586,
              -0.4212726931208264,
              0.8317239097912958
=======
              -1.0599695086861238,
              -0.03979135768442614,
              -1.101336904686603
            ],
            [
              0.7121853975739882,
              -1.2850772783891733,
              -0.7042884912902015
            ],
            [
              1.8127617729488212,
              -1.0088704349694781,
              0.05867329381079708
            ],
            [
              -1.2805813678941143,
              -1.2266083824771397,
              -0.9603362342294904
>>>>>>> fbec65a77c7ae869c87f18a14c6e226c96c9f11e
            ]
          ],
          [
            [
<<<<<<< HEAD
              -0.39147036758195647,
              0.795726477157157,
              1.3222642291917905
            ],
            [
              0.35427654253855395,
              -0.3657688410076913,
              -0.32018504085035865
            ],
            [
              0.5445464572045076,
              0.90561211147049,
              1.6530445127912767
            ],
            [
              0.8800660350701931,
              -1.0528451715121223,
              -1.0989954670132944
=======
              0.610326536152032,
              0.7250921492240203,
              0.5146784101020103
            ],
            [
              -0.7970537075250363,
              0.468290111865138,
              -0.26779788861479625
            ],
            [
              0.7177755926008064,
              -1.1219124689186042,
              0.14326086273801486
            ],
            [
              -0.11037191289595083,
              0.8691737848290678,
              -0.9638721619664897
>>>>>>> fbec65a77c7ae869c87f18a14c6e226c96c9f11e
            ]
          ]
        ]
      ],
      "bias": [
<<<<<<< HEAD
        4.929616113135689e-138,
        5.987108096581555e-136,
        1.8842627405163626e-140,
        7.832702597745487e-134,
        6.524356057685799e-135,
        1.3405922482497838e-133
=======
        -3347.0098260074483,
        -127.56813746573461,
        -2347.7718917524344,
        -211.72355166428977,
        -1576.9574878116546,
        -1092.2336661902023
>>>>>>> fbec65a77c7ae869c87f18a14c6e226c96c9f11e
      ],
      "mode": "average"
    }
  },
  {
    "type": "average_pooling",
    "params": {
      "filterSize": 4,
      "stride": 1,
      "mode": "average"
    }
  },
  {
    "type": "flatten",
    "params": {}
  },
  {
    "type": "dense",
    "params": {
      "numUnit": 300,
      "activationFunctionName": "relu",
      "weight": [
        [
          0.0,
          0.0,
          0.0,
          0.0,
          0.0,
          0.0,
          0.0,
          0.0,
          0.0,
          0.0,
          0.0,
          0.0,
          0.0,
          0.0,
          0.0,
          0.0,
          0.0,
          0.0,
          0.0,
          0.0,
          0.0,
          0.0,
          0.0,
          0.0,
          0.0,
          0.0,
          0.0,
          0.0,
          0.0,
          0.0,
          0.0,
          0.0,
          0.0,
          0.0,
          0.0,
          0.0,
          0.0,
          0.0,
          0.0,
          0.0,
          0.0,
          0.0,
          0.0,
          0.0,
          0.0,
          0.0,
          0.0,
          0.0,
          0.0,
          0.0,
          0.0,
          0.0,
          0.0,
          0.0,
          0.0,
          0.0,
          0.0,
          0.0,
          0.0,
          0.0,
          0.0,
          0.0,
          0.0,
          0.0,
          0.0,
          0.0,
          0.0,
          0.0,
          0.0,
          0.0,
          0.0,
          0.0,
          0.0,
          0.0,
          0.0,
          0.0,
          0.0,
          0.0,
          0.0,
          0.0,
          0.0,
          0.0,
          0.0,
          0.0,
          0.0,
          0.0,
          0.0,
          0.0,
          0.0,
          0.0,
          0.0,
          0.0,
          0.0,
          0.0,
          0.0,
          0.0,
          0.0,
          0.0,
          0.0,
          0.0,
          0.0,
          0.0,
          0.0,
          0.0,
          0.0,
          0.0,
          0.0,
          0.0,
          0.0,
          0.0,
          0.0,
          0.0,
          0.0,
          0.0,
          0.0,
          0.0,
          0.0,
          0.0,
          0.0,
          0.0,
          0.0,
          0.0,
          0.0,
          0.0,
          0.0,
          0.0,
          0.0,
          0.0,
          0.0,
          0.0,
          0.0,
          0.0,
          0.0,
          0.0,
          0.0,
          0.0,
          0.0,
          0.0,
          0.0,
          0.0,
          0.0,
          0.0,
          0.0,
          0.0,
          0.0,
          0.0,
          0.0,
          0.0,
          0.0,
          0.0,
          0.0,
          0.0,
          0.0,
          0.0,
          0.0,
          0.0,
          0.0,
          0.0,
          0.0,
          0.0,
          0.0,
          0.0,
          0.0,
          0.0,
          0.0,
          0.0,
          0.0,
          0.0,
          0.0,
          0.0,
          0.0,
          0.0,
          0.0,
          0.0,
          0.0,
          0.0,
          0.0,
          0.0,
          0.0,
          0.0,
          0.0,
          0.0,
          0.0,
          0.0,
          0.0,
          0.0,
          0.0,
          0.0,
          0.0,
          0.0,
          0.0,
          0.0,
          0.0,
          0.0,
          0.0,
          0.0,
          0.0,
          0.0,
          0.0,
          0.0,
          0.0,
          0.0,
          0.0,
          0.0,
          0.0,
          0.0,
          0.0,
          0.0,
          0.0,
          0.0,
          0.0,
          0.0,
          0.0,
          0.0,
          0.0,
          0.0,
          0.0,
          0.0,
          0.0,
          0.0,
          0.0,
          0.0,
          0.0,
          0.0,
          0.0,
          0.0,
          0.0,
          0.0,
          0.0,
          0.0,
          0.0,
          0.0,
          0.0,
          0.0,
          0.0,
          0.0,
          0.0,
          0.0,
          0.0,
          0.0,
          0.0,
          0.0,
          0.0,
          0.0,
          0.0,
          0.0,
          0.0,
          0.0,
          0.0,
          0.0,
          0.0,
          0.0,
          0.0,
          0.0,
          0.0,
          0.0,
          0.0,
          0.0,
          0.0,
          0.0,
          0.0,
          0.0,
          0.0,
          0.0,
          0.0,
          0.0,
          0.0,
          0.0,
          0.0,
          0.0,
          0.0,
          0.0,
          0.0,
          0.0,
          0.0,
          0.0,
          0.0,
          0.0,
          0.0,
          0.0,
          0.0,
          0.0,
          0.0,
          0.0,
          0.0,
          0.0,
          0.0,
          0.0,
          0.0,
          0.0,
          0.0,
          0.0,
          0.0,
          0.0,
          0.0,
          0.0,
          0.0,
          0.0,
          0.0,
          0.0
        ],
        [
          0.0,
          0.0,
          0.0,
          0.0,
          0.0,
          0.0,
          0.0,
          0.0,
          0.0,
          0.0,
          0.0,
          0.0,
          0.0,
          0.0,
          0.0,
          0.0,
          0.0,
          0.0,
          0.0,
          0.0,
          0.0,
          0.0,
          0.0,
          0.0,
          0.0,
          0.0,
          0.0,
          0.0,
          0.0,
          0.0,
          0.0,
          0.0,
          0.0,
          0.0,
          0.0,
          0.0,
          0.0,
          0.0,
          0.0,
          0.0,
          0.0,
          0.0,
          0.0,
          0.0,
          0.0,
          0.0,
          0.0,
          0.0,
          0.0,
          0.0,
          0.0,
          0.0,
          0.0,
          0.0,
          0.0,
          0.0,
          0.0,
          0.0,
          0.0,
          0.0,
          0.0,
          0.0,
          0.0,
          0.0,
          0.0,
          0.0,
          0.0,
          0.0,
          0.0,
          0.0,
          0.0,
          0.0,
          0.0,
          0.0,
          0.0,
          0.0,
          0.0,
          0.0,
          0.0,
          0.0,
          0.0,
          0.0,
          0.0,
          0.0,
          0.0,
          0.0,
          0.0,
          0.0,
          0.0,
          0.0,
          0.0,
          0.0,
          0.0,
          0.0,
          0.0,
          0.0,
          0.0,
          0.0,
          0.0,
          0.0,
          0.0,
          0.0,
          0.0,
          0.0,
          0.0,
          0.0,
          0.0,
          0.0,
          0.0,
          0.0,
          0.0,
          0.0,
          0.0,
          0.0,
          0.0,
          0.0,
          0.0,
          0.0,
          0.0,
          0.0,
          0.0,
          0.0,
          0.0,
          0.0,
          0.0,
          0.0,
          0.0,
          0.0,
          0.0,
          0.0,
          0.0,
          0.0,
          0.0,
          0.0,
          0.0,
          0.0,
          0.0,
          0.0,
          0.0,
          0.0,
          0.0,
          0.0,
          0.0,
          0.0,
          0.0,
          0.0,
          0.0,
          0.0,
          0.0,
          0.0,
          0.0,
          0.0,
          0.0,
          0.0,
          0.0,
          0.0,
          0.0,
          0.0,
          0.0,
          0.0,
          0.0,
          0.0,
          0.0,
          0.0,
          0.0,
          0.0,
          0.0,
          0.0,
          0.0,
          0.0,
          0.0,
          0.0,
          0.0,
          0.0,
          0.0,
          0.0,
          0.0,
          0.0,
          0.0,
          0.0,
          0.0,
          0.0,
          0.0,
          0.0,
          0.0,
          0.0,
          0.0,
          0.0,
          0.0,
          0.0,
          0.0,
          0.0,
          0.0,
          0.0,
          0.0,
          0.0,
          0.0,
          0.0,
          0.0,
          0.0,
          0.0,
          0.0,
          0.0,
          0.0,
          0.0,
          0.0,
          0.0,
          0.0,
          0.0,
          0.0,
          0.0,
          0.0,
          0.0,
          0.0,
          0.0,
          0.0,
          0.0,
          0.0,
          0.0,
          0.0,
          0.0,
          0.0,
          0.0,
          0.0,
          0.0,
          0.0,
          0.0,
          0.0,
          0.0,
          0.0,
          0.0,
          0.0,
          0.0,
          0.0,
          0.0,
          0.0,
          0.0,
          0.0,
          0.0,
          0.0,
          0.0,
          0.0,
          0.0,
          0.0,
          0.0,
          0.0,
          0.0,
          0.0,
          0.0,
          0.0,
          0.0,
          0.0,
          0.0,
          0.0,
          0.0,
          0.0,
          0.0,
          0.0,
          0.0,
          0.0,
          0.0,
          0.0,
          0.0,
          0.0,
          0.0,
          0.0,
          0.0,
          0.0,
          0.0,
          0.0,
          0.0,
          0.0,
          0.0,
          0.0,
          0.0,
          0.0,
          0.0,
          0.0,
          0.0,
          0.0,
          0.0,
          0.0,
          0.0,
          0.0,
          0.0,
          0.0,
          0.0,
          0.0,
          0.0,
          0.0,
          0.0,
          0.0,
          0.0,
          0.0,
          0.0,
          0.0,
          0.0,
          0.0,
          0.0,
          0.0
        ],
        [
          0.0,
          0.0,
          0.0,
          0.0,
          0.0,
          0.0,
          0.0,
          0.0,
          0.0,
          0.0,
          0.0,
          0.0,
          0.0,
          0.0,
          0.0,
          0.0,
          0.0,
          0.0,
          0.0,
          0.0,
          0.0,
          0.0,
          0.0,
          0.0,
          0.0,
          0.0,
          0.0,
          0.0,
          0.0,
          0.0,
          0.0,
          0.0,
          0.0,
          0.0,
          0.0,
          0.0,
          0.0,
          0.0,
          0.0,
          0.0,
          0.0,
          0.0,
          0.0,
          0.0,
          0.0,
          0.0,
          0.0,
          0.0,
          0.0,
          0.0,
          0.0,
          0.0,
          0.0,
          0.0,
          0.0,
          0.0,
          0.0,
          0.0,
          0.0,
          0.0,
          0.0,
          0.0,
          0.0,
          0.0,
          0.0,
          0.0,
          0.0,
          0.0,
          0.0,
          0.0,
          0.0,
          0.0,
          0.0,
          0.0,
          0.0,
          0.0,
          0.0,
          0.0,
          0.0,
          0.0,
          0.0,
          0.0,
          0.0,
          0.0,
          0.0,
          0.0,
          0.0,
          0.0,
          0.0,
          0.0,
          0.0,
          0.0,
          0.0,
          0.0,
          0.0,
          0.0,
          0.0,
          0.0,
          0.0,
          0.0,
          0.0,
          0.0,
          0.0,
          0.0,
          0.0,
          0.0,
          0.0,
          0.0,
          0.0,
          0.0,
          0.0,
          0.0,
          0.0,
          0.0,
          0.0,
          0.0,
          0.0,
          0.0,
          0.0,
          0.0,
          0.0,
          0.0,
          0.0,
          0.0,
          0.0,
          0.0,
          0.0,
          0.0,
          0.0,
          0.0,
          0.0,
          0.0,
          0.0,
          0.0,
          0.0,
          0.0,
          0.0,
          0.0,
          0.0,
          0.0,
          0.0,
          0.0,
          0.0,
          0.0,
          0.0,
          0.0,
          0.0,
          0.0,
          0.0,
          0.0,
          0.0,
          0.0,
          0.0,
          0.0,
          0.0,
          0.0,
          0.0,
          0.0,
          0.0,
          0.0,
          0.0,
          0.0,
          0.0,
          0.0,
          0.0,
          0.0,
          0.0,
          0.0,
          0.0,
          0.0,
          0.0,
          0.0,
          0.0,
          0.0,
          0.0,
          0.0,
          0.0,
          0.0,
          0.0,
          0.0,
          0.0,
          0.0,
          0.0,
          0.0,
          0.0,
          0.0,
          0.0,
          0.0,
          0.0,
          0.0,
          0.0,
          0.0,
          0.0,
          0.0,
          0.0,
          0.0,
          0.0,
          0.0,
          0.0,
          0.0,
          0.0,
          0.0,
          0.0,
          0.0,
          0.0,
          0.0,
          0.0,
          0.0,
          0.0,
          0.0,
          0.0,
          0.0,
          0.0,
          0.0,
          0.0,
          0.0,
          0.0,
          0.0,
          0.0,
          0.0,
          0.0,
          0.0,
          0.0,
          0.0,
          0.0,
          0.0,
          0.0,
          0.0,
          0.0,
          0.0,
          0.0,
          0.0,
          0.0,
          0.0,
          0.0,
          0.0,
          0.0,
          0.0,
          0.0,
          0.0,
          0.0,
          0.0,
          0.0,
          0.0,
          0.0,
          0.0,
          0.0,
          0.0,
          0.0,
          0.0,
          0.0,
          0.0,
          0.0,
          0.0,
          0.0,
          0.0,
          0.0,
          0.0,
          0.0,
          0.0,
          0.0,
          0.0,
          0.0,
          0.0,
          0.0,
          0.0,
          0.0,
          0.0,
          0.0,
          0.0,
          0.0,
          0.0,
          0.0,
          0.0,
          0.0,
          0.0,
          0.0,
          0.0,
          0.0,
          0.0,
          0.0,
          0.0,
          0.0,
          0.0,
          0.0,
          0.0,
          0.0,
          0.0,
          0.0,
          0.0,
          0.0,
          0.0,
          0.0,
          0.0,
          0.0,
          0.0,
          0.0,
          0.0,
          0.0,
          0.0
        ],
        [
          0.0,
          0.0,
          0.0,
          0.0,
          0.0,
          0.0,
          0.0,
          0.0,
          0.0,
          0.0,
          0.0,
          0.0,
          0.0,
          0.0,
          0.0,
          0.0,
          0.0,
          0.0,
          0.0,
          0.0,
          0.0,
          0.0,
          0.0,
          0.0,
          0.0,
          0.0,
          0.0,
          0.0,
          0.0,
          0.0,
          0.0,
          0.0,
          0.0,
          0.0,
          0.0,
          0.0,
          0.0,
          0.0,
          0.0,
          0.0,
          0.0,
          0.0,
          0.0,
          0.0,
          0.0,
          0.0,
          0.0,
          0.0,
          0.0,
          0.0,
          0.0,
          0.0,
          0.0,
          0.0,
          0.0,
          0.0,
          0.0,
          0.0,
          0.0,
          0.0,
          0.0,
          0.0,
          0.0,
          0.0,
          0.0,
          0.0,
          0.0,
          0.0,
          0.0,
          0.0,
          0.0,
          0.0,
          0.0,
          0.0,
          0.0,
          0.0,
          0.0,
          0.0,
          0.0,
          0.0,
          0.0,
          0.0,
          0.0,
          0.0,
          0.0,
          0.0,
          0.0,
          0.0,
          0.0,
          0.0,
          0.0,
          0.0,
          0.0,
          0.0,
          0.0,
          0.0,
          0.0,
          0.0,
          0.0,
          0.0,
          0.0,
          0.0,
          0.0,
          0.0,
          0.0,
          0.0,
          0.0,
          0.0,
          0.0,
          0.0,
          0.0,
          0.0,
          0.0,
          0.0,
          0.0,
          0.0,
          0.0,
          0.0,
          0.0,
          0.0,
          0.0,
          0.0,
          0.0,
          0.0,
          0.0,
          0.0,
          0.0,
          0.0,
          0.0,
          0.0,
          0.0,
          0.0,
          0.0,
          0.0,
          0.0,
          0.0,
          0.0,
          0.0,
          0.0,
          0.0,
          0.0,
          0.0,
          0.0,
          0.0,
          0.0,
          0.0,
          0.0,
          0.0,
          0.0,
          0.0,
          0.0,
          0.0,
          0.0,
          0.0,
          0.0,
          0.0,
          0.0,
          0.0,
          0.0,
          0.0,
          0.0,
          0.0,
          0.0,
          0.0,
          0.0,
          0.0,
          0.0,
          0.0,
          0.0,
          0.0,
          0.0,
          0.0,
          0.0,
          0.0,
          0.0,
          0.0,
          0.0,
          0.0,
          0.0,
          0.0,
          0.0,
          0.0,
          0.0,
          0.0,
          0.0,
          0.0,
          0.0,
          0.0,
          0.0,
          0.0,
          0.0,
          0.0,
          0.0,
          0.0,
          0.0,
          0.0,
          0.0,
          0.0,
          0.0,
          0.0,
          0.0,
          0.0,
          0.0,
          0.0,
          0.0,
          0.0,
          0.0,
          0.0,
          0.0,
          0.0,
          0.0,
          0.0,
          0.0,
          0.0,
          0.0,
          0.0,
          0.0,
          0.0,
          0.0,
          0.0,
          0.0,
          0.0,
          0.0,
          0.0,
          0.0,
          0.0,
          0.0,
          0.0,
          0.0,
          0.0,
          0.0,
          0.0,
          0.0,
          0.0,
          0.0,
          0.0,
          0.0,
          0.0,
          0.0,
          0.0,
          0.0,
          0.0,
          0.0,
          0.0,
          0.0,
          0.0,
          0.0,
          0.0,
          0.0,
          0.0,
          0.0,
          0.0,
          0.0,
          0.0,
          0.0,
          0.0,
          0.0,
          0.0,
          0.0,
          0.0,
          0.0,
          0.0,
          0.0,
          0.0,
          0.0,
          0.0,
          0.0,
          0.0,
          0.0,
          0.0,
          0.0,
          0.0,
          0.0,
          0.0,
          0.0,
          0.0,
          0.0,
          0.0,
          0.0,
          0.0,
          0.0,
          0.0,
          0.0,
          0.0,
          0.0,
          0.0,
          0.0,
          0.0,
          0.0,
          0.0,
          0.0,
          0.0,
          0.0,
          0.0,
          0.0,
          0.0,
          0.0,
          0.0,
          0.0,
          0.0
        ],
        [
          0.0,
          0.0,
          0.0,
          0.0,
          0.0,
          0.0,
          0.0,
          0.0,
          0.0,
          0.0,
          0.0,
          0.0,
          0.0,
          0.0,
          0.0,
          0.0,
          0.0,
          0.0,
          0.0,
          0.0,
          0.0,
          0.0,
          0.0,
          0.0,
          0.0,
          0.0,
          0.0,
          0.0,
          0.0,
          0.0,
          0.0,
          0.0,
          0.0,
          0.0,
          0.0,
          0.0,
          0.0,
          0.0,
          0.0,
          0.0,
          0.0,
          0.0,
          0.0,
          0.0,
          0.0,
          0.0,
          0.0,
          0.0,
          0.0,
          0.0,
          0.0,
          0.0,
          0.0,
          0.0,
          0.0,
          0.0,
          0.0,
          0.0,
          0.0,
          0.0,
          0.0,
          0.0,
          0.0,
          0.0,
          0.0,
          0.0,
          0.0,
          0.0,
          0.0,
          0.0,
          0.0,
          0.0,
          0.0,
          0.0,
          0.0,
          0.0,
          0.0,
          0.0,
          0.0,
          0.0,
          0.0,
          0.0,
          0.0,
          0.0,
          0.0,
          0.0,
          0.0,
          0.0,
          0.0,
          0.0,
          0.0,
          0.0,
          0.0,
          0.0,
          0.0,
          0.0,
          0.0,
          0.0,
          0.0,
          0.0,
          0.0,
          0.0,
          0.0,
          0.0,
          0.0,
          0.0,
          0.0,
          0.0,
          0.0,
          0.0,
          0.0,
          0.0,
          0.0,
          0.0,
          0.0,
          0.0,
          0.0,
          0.0,
          0.0,
          0.0,
          0.0,
          0.0,
          0.0,
          0.0,
          0.0,
          0.0,
          0.0,
          0.0,
          0.0,
          0.0,
          0.0,
          0.0,
          0.0,
          0.0,
          0.0,
          0.0,
          0.0,
          0.0,
          0.0,
          0.0,
          0.0,
          0.0,
          0.0,
          0.0,
          0.0,
          0.0,
          0.0,
          0.0,
          0.0,
          0.0,
          0.0,
          0.0,
          0.0,
          0.0,
          0.0,
          0.0,
          0.0,
          0.0,
          0.0,
          0.0,
          0.0,
          0.0,
          0.0,
          0.0,
          0.0,
          0.0,
          0.0,
          0.0,
          0.0,
          0.0,
          0.0,
          0.0,
          0.0,
          0.0,
          0.0,
          0.0,
          0.0,
          0.0,
          0.0,
          0.0,
          0.0,
          0.0,
          0.0,
          0.0,
          0.0,
          0.0,
          0.0,
          0.0,
          0.0,
          0.0,
          0.0,
          0.0,
          0.0,
          0.0,
          0.0,
          0.0,
          0.0,
          0.0,
          0.0,
          0.0,
          0.0,
          0.0,
          0.0,
          0.0,
          0.0,
          0.0,
          0.0,
          0.0,
          0.0,
          0.0,
          0.0,
          0.0,
          0.0,
          0.0,
          0.0,
          0.0,
          0.0,
          0.0,
          0.0,
          0.0,
          0.0,
          0.0,
          0.0,
          0.0,
          0.0,
          0.0,
          0.0,
          0.0,
          0.0,
          0.0,
          0.0,
          0.0,
          0.0,
          0.0,
          0.0,
          0.0,
          0.0,
          0.0,
          0.0,
          0.0,
          0.0,
          0.0,
          0.0,
          0.0,
          0.0,
          0.0,
          0.0,
          0.0,
          0.0,
          0.0,
          0.0,
          0.0,
          0.0,
          0.0,
          0.0,
          0.0,
          0.0,
          0.0,
          0.0,
          0.0,
          0.0,
          0.0,
          0.0,
          0.0,
          0.0,
          0.0,
          0.0,
          0.0,
          0.0,
          0.0,
          0.0,
          0.0,
          0.0,
          0.0,
          0.0,
          0.0,
          0.0,
          0.0,
          0.0,
          0.0,
          0.0,
          0.0,
          0.0,
          0.0,
          0.0,
          0.0,
          0.0,
          0.0,
          0.0,
          0.0,
          0.0,
          0.0,
          0.0,
          0.0,
          0.0,
          0.0,
          0.0,
          0.0,
          0.0,
          0.0
        ],
        [
          0.0,
          0.0,
          0.0,
          0.0,
          0.0,
          0.0,
          0.0,
          0.0,
          0.0,
          0.0,
          0.0,
          0.0,
          0.0,
          0.0,
          0.0,
          0.0,
          0.0,
          0.0,
          0.0,
          0.0,
          0.0,
          0.0,
          0.0,
          0.0,
          0.0,
          0.0,
          0.0,
          0.0,
          0.0,
          0.0,
          0.0,
          0.0,
          0.0,
          0.0,
          0.0,
          0.0,
          0.0,
          0.0,
          0.0,
          0.0,
          0.0,
          0.0,
          0.0,
          0.0,
          0.0,
          0.0,
          0.0,
          0.0,
          0.0,
          0.0,
          0.0,
          0.0,
          0.0,
          0.0,
          0.0,
          0.0,
          0.0,
          0.0,
          0.0,
          0.0,
          0.0,
          0.0,
          0.0,
          0.0,
          0.0,
          0.0,
          0.0,
          0.0,
          0.0,
          0.0,
          0.0,
          0.0,
          0.0,
          0.0,
          0.0,
          0.0,
          0.0,
          0.0,
          0.0,
          0.0,
          0.0,
          0.0,
          0.0,
          0.0,
          0.0,
          0.0,
          0.0,
          0.0,
          0.0,
          0.0,
          0.0,
          0.0,
          0.0,
          0.0,
          0.0,
          0.0,
          0.0,
          0.0,
          0.0,
          0.0,
          0.0,
          0.0,
          0.0,
          0.0,
          0.0,
          0.0,
          0.0,
          0.0,
          0.0,
          0.0,
          0.0,
          0.0,
          0.0,
          0.0,
          0.0,
          0.0,
          0.0,
          0.0,
          0.0,
          0.0,
          0.0,
          0.0,
          0.0,
          0.0,
          0.0,
          0.0,
          0.0,
          0.0,
          0.0,
          0.0,
          0.0,
          0.0,
          0.0,
          0.0,
          0.0,
          0.0,
          0.0,
          0.0,
          0.0,
          0.0,
          0.0,
          0.0,
          0.0,
          0.0,
          0.0,
          0.0,
          0.0,
          0.0,
          0.0,
          0.0,
          0.0,
          0.0,
          0.0,
          0.0,
          0.0,
          0.0,
          0.0,
          0.0,
          0.0,
          0.0,
          0.0,
          0.0,
          0.0,
          0.0,
          0.0,
          0.0,
          0.0,
          0.0,
          0.0,
          0.0,
          0.0,
          0.0,
          0.0,
          0.0,
          0.0,
          0.0,
          0.0,
          0.0,
          0.0,
          0.0,
          0.0,
          0.0,
          0.0,
          0.0,
          0.0,
          0.0,
          0.0,
          0.0,
          0.0,
          0.0,
          0.0,
          0.0,
          0.0,
          0.0,
          0.0,
          0.0,
          0.0,
          0.0,
          0.0,
          0.0,
          0.0,
          0.0,
          0.0,
          0.0,
          0.0,
          0.0,
          0.0,
          0.0,
          0.0,
          0.0,
          0.0,
          0.0,
          0.0,
          0.0,
          0.0,
          0.0,
          0.0,
          0.0,
          0.0,
          0.0,
          0.0,
          0.0,
          0.0,
          0.0,
          0.0,
          0.0,
          0.0,
          0.0,
          0.0,
          0.0,
          0.0,
          0.0,
          0.0,
          0.0,
          0.0,
          0.0,
          0.0,
          0.0,
          0.0,
          0.0,
          0.0,
          0.0,
          0.0,
          0.0,
          0.0,
          0.0,
          0.0,
          0.0,
          0.0,
          0.0,
          0.0,
          0.0,
          0.0,
          0.0,
          0.0,
          0.0,
          0.0,
          0.0,
          0.0,
          0.0,
          0.0,
          0.0,
          0.0,
          0.0,
          0.0,
          0.0,
          0.0,
          0.0,
          0.0,
          0.0,
          0.0,
          0.0,
          0.0,
          0.0,
          0.0,
          0.0,
          0.0,
          0.0,
          0.0,
          0.0,
          0.0,
          0.0,
          0.0,
          0.0,
          0.0,
          0.0,
          0.0,
          0.0,
          0.0,
          0.0,
          0.0,
          0.0,
          0.0,
          0.0,
          0.0,
          0.0,
          0.0,
          0.0,
          0.0,
          0.0
        ],
        [
          0.0,
          0.0,
          0.0,
          0.0,
          0.0,
          0.0,
          0.0,
          0.0,
          0.0,
          0.0,
          0.0,
          0.0,
          0.0,
          0.0,
          0.0,
          0.0,
          0.0,
          0.0,
          0.0,
          0.0,
          0.0,
          0.0,
          0.0,
          0.0,
          0.0,
          0.0,
          0.0,
          0.0,
          0.0,
          0.0,
          0.0,
          0.0,
          0.0,
          0.0,
          0.0,
          0.0,
          0.0,
          0.0,
          0.0,
          0.0,
          0.0,
          0.0,
          0.0,
          0.0,
          0.0,
          0.0,
          0.0,
          0.0,
          0.0,
          0.0,
          0.0,
          0.0,
          0.0,
          0.0,
          0.0,
          0.0,
          0.0,
          0.0,
          0.0,
          0.0,
          0.0,
          0.0,
          0.0,
          0.0,
          0.0,
          0.0,
          0.0,
          0.0,
          0.0,
          0.0,
          0.0,
          0.0,
          0.0,
          0.0,
          0.0,
          0.0,
          0.0,
          0.0,
          0.0,
          0.0,
          0.0,
          0.0,
          0.0,
          0.0,
          0.0,
          0.0,
          0.0,
          0.0,
          0.0,
          0.0,
          0.0,
          0.0,
          0.0,
          0.0,
          0.0,
          0.0,
          0.0,
          0.0,
          0.0,
          0.0,
          0.0,
          0.0,
          0.0,
          0.0,
          0.0,
          0.0,
          0.0,
          0.0,
          0.0,
          0.0,
          0.0,
          0.0,
          0.0,
          0.0,
          0.0,
          0.0,
          0.0,
          0.0,
          0.0,
          0.0,
          0.0,
          0.0,
          0.0,
          0.0,
          0.0,
          0.0,
          0.0,
          0.0,
          0.0,
          0.0,
          0.0,
          0.0,
          0.0,
          0.0,
          0.0,
          0.0,
          0.0,
          0.0,
          0.0,
          0.0,
          0.0,
          0.0,
          0.0,
          0.0,
          0.0,
          0.0,
          0.0,
          0.0,
          0.0,
          0.0,
          0.0,
          0.0,
          0.0,
          0.0,
          0.0,
          0.0,
          0.0,
          0.0,
          0.0,
          0.0,
          0.0,
          0.0,
          0.0,
          0.0,
          0.0,
          0.0,
          0.0,
          0.0,
          0.0,
          0.0,
          0.0,
          0.0,
          0.0,
          0.0,
          0.0,
          0.0,
          0.0,
          0.0,
          0.0,
          0.0,
          0.0,
          0.0,
          0.0,
          0.0,
          0.0,
          0.0,
          0.0,
          0.0,
          0.0,
          0.0,
          0.0,
          0.0,
          0.0,
          0.0,
          0.0,
          0.0,
          0.0,
          0.0,
          0.0,
          0.0,
          0.0,
          0.0,
          0.0,
          0.0,
          0.0,
          0.0,
          0.0,
          0.0,
          0.0,
          0.0,
          0.0,
          0.0,
          0.0,
          0.0,
          0.0,
          0.0,
          0.0,
          0.0,
          0.0,
          0.0,
          0.0,
          0.0,
          0.0,
          0.0,
          0.0,
          0.0,
          0.0,
          0.0,
          0.0,
          0.0,
          0.0,
          0.0,
          0.0,
          0.0,
          0.0,
          0.0,
          0.0,
          0.0,
          0.0,
          0.0,
          0.0,
          0.0,
          0.0,
          0.0,
          0.0,
          0.0,
          0.0,
          0.0,
          0.0,
          0.0,
          0.0,
          0.0,
          0.0,
          0.0,
          0.0,
          0.0,
          0.0,
          0.0,
          0.0,
          0.0,
          0.0,
          0.0,
          0.0,
          0.0,
          0.0,
          0.0,
          0.0,
          0.0,
          0.0,
          0.0,
          0.0,
          0.0,
          0.0,
          0.0,
          0.0,
          0.0,
          0.0,
          0.0,
          0.0,
          0.0,
          0.0,
          0.0,
          0.0,
          0.0,
          0.0,
          0.0,
          0.0,
          0.0,
          0.0,
          0.0,
          0.0,
          0.0,
          0.0,
          0.0,
          0.0,
          0.0,
          0.0,
          0.0,
          0.0,
          0.0
        ],
        [
          0.0,
          0.0,
          0.0,
          0.0,
          0.0,
          0.0,
          0.0,
          0.0,
          0.0,
          0.0,
          0.0,
          0.0,
          0.0,
          0.0,
          0.0,
          0.0,
          0.0,
          0.0,
          0.0,
          0.0,
          0.0,
          0.0,
          0.0,
          0.0,
          0.0,
          0.0,
          0.0,
          0.0,
          0.0,
          0.0,
          0.0,
          0.0,
          0.0,
          0.0,
          0.0,
          0.0,
          0.0,
          0.0,
          0.0,
          0.0,
          0.0,
          0.0,
          0.0,
          0.0,
          0.0,
          0.0,
          0.0,
          0.0,
          0.0,
          0.0,
          0.0,
          0.0,
          0.0,
          0.0,
          0.0,
          0.0,
          0.0,
          0.0,
          0.0,
          0.0,
          0.0,
          0.0,
          0.0,
          0.0,
          0.0,
          0.0,
          0.0,
          0.0,
          0.0,
          0.0,
          0.0,
          0.0,
          0.0,
          0.0,
          0.0,
          0.0,
          0.0,
          0.0,
          0.0,
          0.0,
          0.0,
          0.0,
          0.0,
          0.0,
          0.0,
          0.0,
          0.0,
          0.0,
          0.0,
          0.0,
          0.0,
          0.0,
          0.0,
          0.0,
          0.0,
          0.0,
          0.0,
          0.0,
          0.0,
          0.0,
          0.0,
          0.0,
          0.0,
          0.0,
          0.0,
          0.0,
          0.0,
          0.0,
          0.0,
          0.0,
          0.0,
          0.0,
          0.0,
          0.0,
          0.0,
          0.0,
          0.0,
          0.0,
          0.0,
          0.0,
          0.0,
          0.0,
          0.0,
          0.0,
          0.0,
          0.0,
          0.0,
          0.0,
          0.0,
          0.0,
          0.0,
          0.0,
          0.0,
          0.0,
          0.0,
          0.0,
          0.0,
          0.0,
          0.0,
          0.0,
          0.0,
          0.0,
          0.0,
          0.0,
          0.0,
          0.0,
          0.0,
          0.0,
          0.0,
          0.0,
          0.0,
          0.0,
          0.0,
          0.0,
          0.0,
          0.0,
          0.0,
          0.0,
          0.0,
          0.0,
          0.0,
          0.0,
          0.0,
          0.0,
          0.0,
          0.0,
          0.0,
          0.0,
          0.0,
          0.0,
          0.0,
          0.0,
          0.0,
          0.0,
          0.0,
          0.0,
          0.0,
          0.0,
          0.0,
          0.0,
          0.0,
          0.0,
          0.0,
          0.0,
          0.0,
          0.0,
          0.0,
          0.0,
          0.0,
          0.0,
          0.0,
          0.0,
          0.0,
          0.0,
          0.0,
          0.0,
          0.0,
          0.0,
          0.0,
          0.0,
          0.0,
          0.0,
          0.0,
          0.0,
          0.0,
          0.0,
          0.0,
          0.0,
          0.0,
          0.0,
          0.0,
          0.0,
          0.0,
          0.0,
          0.0,
          0.0,
          0.0,
          0.0,
          0.0,
          0.0,
          0.0,
          0.0,
          0.0,
          0.0,
          0.0,
          0.0,
          0.0,
          0.0,
          0.0,
          0.0,
          0.0,
          0.0,
          0.0,
          0.0,
          0.0,
          0.0,
          0.0,
          0.0,
          0.0,
          0.0,
          0.0,
          0.0,
          0.0,
          0.0,
          0.0,
          0.0,
          0.0,
          0.0,
          0.0,
          0.0,
          0.0,
          0.0,
          0.0,
          0.0,
          0.0,
          0.0,
          0.0,
          0.0,
          0.0,
          0.0,
          0.0,
          0.0,
          0.0,
          0.0,
          0.0,
          0.0,
          0.0,
          0.0,
          0.0,
          0.0,
          0.0,
          0.0,
          0.0,
          0.0,
          0.0,
          0.0,
          0.0,
          0.0,
          0.0,
          0.0,
          0.0,
          0.0,
          0.0,
          0.0,
          0.0,
          0.0,
          0.0,
          0.0,
          0.0,
          0.0,
          0.0,
          0.0,
          0.0,
          0.0,
          0.0,
          0.0,
          0.0,
          0.0,
          0.0,
          0.0
        ],
        [
          0.0,
          0.0,
          0.0,
          0.0,
          0.0,
          0.0,
          0.0,
          0.0,
          0.0,
          0.0,
          0.0,
          0.0,
          0.0,
          0.0,
          0.0,
          0.0,
          0.0,
          0.0,
          0.0,
          0.0,
          0.0,
          0.0,
          0.0,
          0.0,
          0.0,
          0.0,
          0.0,
          0.0,
          0.0,
          0.0,
          0.0,
          0.0,
          0.0,
          0.0,
          0.0,
          0.0,
          0.0,
          0.0,
          0.0,
          0.0,
          0.0,
          0.0,
          0.0,
          0.0,
          0.0,
          0.0,
          0.0,
          0.0,
          0.0,
          0.0,
          0.0,
          0.0,
          0.0,
          0.0,
          0.0,
          0.0,
          0.0,
          0.0,
          0.0,
          0.0,
          0.0,
          0.0,
          0.0,
          0.0,
          0.0,
          0.0,
          0.0,
          0.0,
          0.0,
          0.0,
          0.0,
          0.0,
          0.0,
          0.0,
          0.0,
          0.0,
          0.0,
          0.0,
          0.0,
          0.0,
          0.0,
          0.0,
          0.0,
          0.0,
          0.0,
          0.0,
          0.0,
          0.0,
          0.0,
          0.0,
          0.0,
          0.0,
          0.0,
          0.0,
          0.0,
          0.0,
          0.0,
          0.0,
          0.0,
          0.0,
          0.0,
          0.0,
          0.0,
          0.0,
          0.0,
          0.0,
          0.0,
          0.0,
          0.0,
          0.0,
          0.0,
          0.0,
          0.0,
          0.0,
          0.0,
          0.0,
          0.0,
          0.0,
          0.0,
          0.0,
          0.0,
          0.0,
          0.0,
          0.0,
          0.0,
          0.0,
          0.0,
          0.0,
          0.0,
          0.0,
          0.0,
          0.0,
          0.0,
          0.0,
          0.0,
          0.0,
          0.0,
          0.0,
          0.0,
          0.0,
          0.0,
          0.0,
          0.0,
          0.0,
          0.0,
          0.0,
          0.0,
          0.0,
          0.0,
          0.0,
          0.0,
          0.0,
          0.0,
          0.0,
          0.0,
          0.0,
          0.0,
          0.0,
          0.0,
          0.0,
          0.0,
          0.0,
          0.0,
          0.0,
          0.0,
          0.0,
          0.0,
          0.0,
          0.0,
          0.0,
          0.0,
          0.0,
          0.0,
          0.0,
          0.0,
          0.0,
          0.0,
          0.0,
          0.0,
          0.0,
          0.0,
          0.0,
          0.0,
          0.0,
          0.0,
          0.0,
          0.0,
          0.0,
          0.0,
          0.0,
          0.0,
          0.0,
          0.0,
          0.0,
          0.0,
          0.0,
          0.0,
          0.0,
          0.0,
          0.0,
          0.0,
          0.0,
          0.0,
          0.0,
          0.0,
          0.0,
          0.0,
          0.0,
          0.0,
          0.0,
          0.0,
          0.0,
          0.0,
          0.0,
          0.0,
          0.0,
          0.0,
          0.0,
          0.0,
          0.0,
          0.0,
          0.0,
          0.0,
          0.0,
          0.0,
          0.0,
          0.0,
          0.0,
          0.0,
          0.0,
          0.0,
          0.0,
          0.0,
          0.0,
          0.0,
          0.0,
          0.0,
          0.0,
          0.0,
          0.0,
          0.0,
          0.0,
          0.0,
          0.0,
          0.0,
          0.0,
          0.0,
          0.0,
          0.0,
          0.0,
          0.0,
          0.0,
          0.0,
          0.0,
          0.0,
          0.0,
          0.0,
          0.0,
          0.0,
          0.0,
          0.0,
          0.0,
          0.0,
          0.0,
          0.0,
          0.0,
          0.0,
          0.0,
          0.0,
          0.0,
          0.0,
          0.0,
          0.0,
          0.0,
          0.0,
          0.0,
          0.0,
          0.0,
          0.0,
          0.0,
          0.0,
          0.0,
          0.0,
          0.0,
          0.0,
          0.0,
          0.0,
          0.0,
          0.0,
          0.0,
          0.0,
          0.0,
          0.0,
          0.0,
          0.0,
          0.0,
          0.0,
          0.0,
          0.0,
          0.0
        ],
        [
          0.0,
          0.0,
          0.0,
          0.0,
          0.0,
          0.0,
          0.0,
          0.0,
          0.0,
          0.0,
          0.0,
          0.0,
          0.0,
          0.0,
          0.0,
          0.0,
          0.0,
          0.0,
          0.0,
          0.0,
          0.0,
          0.0,
          0.0,
          0.0,
          0.0,
          0.0,
          0.0,
          0.0,
          0.0,
          0.0,
          0.0,
          0.0,
          0.0,
          0.0,
          0.0,
          0.0,
          0.0,
          0.0,
          0.0,
          0.0,
          0.0,
          0.0,
          0.0,
          0.0,
          0.0,
          0.0,
          0.0,
          0.0,
          0.0,
          0.0,
          0.0,
          0.0,
          0.0,
          0.0,
          0.0,
          0.0,
          0.0,
          0.0,
          0.0,
          0.0,
          0.0,
          0.0,
          0.0,
          0.0,
          0.0,
          0.0,
          0.0,
          0.0,
          0.0,
          0.0,
          0.0,
          0.0,
          0.0,
          0.0,
          0.0,
          0.0,
          0.0,
          0.0,
          0.0,
          0.0,
          0.0,
          0.0,
          0.0,
          0.0,
          0.0,
          0.0,
          0.0,
          0.0,
          0.0,
          0.0,
          0.0,
          0.0,
          0.0,
          0.0,
          0.0,
          0.0,
          0.0,
          0.0,
          0.0,
          0.0,
          0.0,
          0.0,
          0.0,
          0.0,
          0.0,
          0.0,
          0.0,
          0.0,
          0.0,
          0.0,
          0.0,
          0.0,
          0.0,
          0.0,
          0.0,
          0.0,
          0.0,
          0.0,
          0.0,
          0.0,
          0.0,
          0.0,
          0.0,
          0.0,
          0.0,
          0.0,
          0.0,
          0.0,
          0.0,
          0.0,
          0.0,
          0.0,
          0.0,
          0.0,
          0.0,
          0.0,
          0.0,
          0.0,
          0.0,
          0.0,
          0.0,
          0.0,
          0.0,
          0.0,
          0.0,
          0.0,
          0.0,
          0.0,
          0.0,
          0.0,
          0.0,
          0.0,
          0.0,
          0.0,
          0.0,
          0.0,
          0.0,
          0.0,
          0.0,
          0.0,
          0.0,
          0.0,
          0.0,
          0.0,
          0.0,
          0.0,
          0.0,
          0.0,
          0.0,
          0.0,
          0.0,
          0.0,
          0.0,
          0.0,
          0.0,
          0.0,
          0.0,
          0.0,
          0.0,
          0.0,
          0.0,
          0.0,
          0.0,
          0.0,
          0.0,
          0.0,
          0.0,
          0.0,
          0.0,
          0.0,
          0.0,
          0.0,
          0.0,
          0.0,
          0.0,
          0.0,
          0.0,
          0.0,
          0.0,
          0.0,
          0.0,
          0.0,
          0.0,
          0.0,
          0.0,
          0.0,
          0.0,
          0.0,
          0.0,
          0.0,
          0.0,
          0.0,
          0.0,
          0.0,
          0.0,
          0.0,
          0.0,
          0.0,
          0.0,
          0.0,
          0.0,
          0.0,
          0.0,
          0.0,
          0.0,
          0.0,
          0.0,
          0.0,
          0.0,
          0.0,
          0.0,
          0.0,
          0.0,
          0.0,
          0.0,
          0.0,
          0.0,
          0.0,
          0.0,
          0.0,
          0.0,
          0.0,
          0.0,
          0.0,
          0.0,
          0.0,
          0.0,
          0.0,
          0.0,
          0.0,
          0.0,
          0.0,
          0.0,
          0.0,
          0.0,
          0.0,
          0.0,
          0.0,
          0.0,
          0.0,
          0.0,
          0.0,
          0.0,
          0.0,
          0.0,
          0.0,
          0.0,
          0.0,
          0.0,
          0.0,
          0.0,
          0.0,
          0.0,
          0.0,
          0.0,
          0.0,
          0.0,
          0.0,
          0.0,
          0.0,
          0.0,
          0.0,
          0.0,
          0.0,
          0.0,
          0.0,
          0.0,
          0.0,
          0.0,
          0.0,
          0.0,
          0.0,
          0.0,
          0.0,
          0.0,
          0.0,
          0.0,
          0.0,
          0.0,
          0.0
        ],
        [
          0.0,
          0.0,
          0.0,
          0.0,
          0.0,
          0.0,
          0.0,
          0.0,
          0.0,
          0.0,
          0.0,
          0.0,
          0.0,
          0.0,
          0.0,
          0.0,
          0.0,
          0.0,
          0.0,
          0.0,
          0.0,
          0.0,
          0.0,
          0.0,
          0.0,
          0.0,
          0.0,
          0.0,
          0.0,
          0.0,
          0.0,
          0.0,
          0.0,
          0.0,
          0.0,
          0.0,
          0.0,
          0.0,
          0.0,
          0.0,
          0.0,
          0.0,
          0.0,
          0.0,
          0.0,
          0.0,
          0.0,
          0.0,
          0.0,
          0.0,
          0.0,
          0.0,
          0.0,
          0.0,
          0.0,
          0.0,
          0.0,
          0.0,
          0.0,
          0.0,
          0.0,
          0.0,
          0.0,
          0.0,
          0.0,
          0.0,
          0.0,
          0.0,
          0.0,
          0.0,
          0.0,
          0.0,
          0.0,
          0.0,
          0.0,
          0.0,
          0.0,
          0.0,
          0.0,
          0.0,
          0.0,
          0.0,
          0.0,
          0.0,
          0.0,
          0.0,
          0.0,
          0.0,
          0.0,
          0.0,
          0.0,
          0.0,
          0.0,
          0.0,
          0.0,
          0.0,
          0.0,
          0.0,
          0.0,
          0.0,
          0.0,
          0.0,
          0.0,
          0.0,
          0.0,
          0.0,
          0.0,
          0.0,
          0.0,
          0.0,
          0.0,
          0.0,
          0.0,
          0.0,
          0.0,
          0.0,
          0.0,
          0.0,
          0.0,
          0.0,
          0.0,
          0.0,
          0.0,
          0.0,
          0.0,
          0.0,
          0.0,
          0.0,
          0.0,
          0.0,
          0.0,
          0.0,
          0.0,
          0.0,
          0.0,
          0.0,
          0.0,
          0.0,
          0.0,
          0.0,
          0.0,
          0.0,
          0.0,
          0.0,
          0.0,
          0.0,
          0.0,
          0.0,
          0.0,
          0.0,
          0.0,
          0.0,
          0.0,
          0.0,
          0.0,
          0.0,
          0.0,
          0.0,
          0.0,
          0.0,
          0.0,
          0.0,
          0.0,
          0.0,
          0.0,
          0.0,
          0.0,
          0.0,
          0.0,
          0.0,
          0.0,
          0.0,
          0.0,
          0.0,
          0.0,
          0.0,
          0.0,
          0.0,
          0.0,
          0.0,
          0.0,
          0.0,
          0.0,
          0.0,
          0.0,
          0.0,
          0.0,
          0.0,
          0.0,
          0.0,
          0.0,
          0.0,
          0.0,
          0.0,
          0.0,
          0.0,
          0.0,
          0.0,
          0.0,
          0.0,
          0.0,
          0.0,
          0.0,
          0.0,
          0.0,
          0.0,
          0.0,
          0.0,
          0.0,
          0.0,
          0.0,
          0.0,
          0.0,
          0.0,
          0.0,
          0.0,
          0.0,
          0.0,
          0.0,
          0.0,
          0.0,
          0.0,
          0.0,
          0.0,
          0.0,
          0.0,
          0.0,
          0.0,
          0.0,
          0.0,
          0.0,
          0.0,
          0.0,
          0.0,
          0.0,
          0.0,
          0.0,
          0.0,
          0.0,
          0.0,
          0.0,
          0.0,
          0.0,
          0.0,
          0.0,
          0.0,
          0.0,
          0.0,
          0.0,
          0.0,
          0.0,
          0.0,
          0.0,
          0.0,
          0.0,
          0.0,
          0.0,
          0.0,
          0.0,
          0.0,
          0.0,
          0.0,
          0.0,
          0.0,
          0.0,
          0.0,
          0.0,
          0.0,
          0.0,
          0.0,
          0.0,
          0.0,
          0.0,
          0.0,
          0.0,
          0.0,
          0.0,
          0.0,
          0.0,
          0.0,
          0.0,
          0.0,
          0.0,
          0.0,
          0.0,
          0.0,
          0.0,
          0.0,
          0.0,
          0.0,
          0.0,
          0.0,
          0.0,
          0.0,
          0.0,
          0.0,
          0.0,
          0.0,
          0.0,
          0.0
        ],
        [
          0.0,
          0.0,
          0.0,
          0.0,
          0.0,
          0.0,
          0.0,
          0.0,
          0.0,
          0.0,
          0.0,
          0.0,
          0.0,
          0.0,
          0.0,
          0.0,
          0.0,
          0.0,
          0.0,
          0.0,
          0.0,
          0.0,
          0.0,
          0.0,
          0.0,
          0.0,
          0.0,
          0.0,
          0.0,
          0.0,
          0.0,
          0.0,
          0.0,
          0.0,
          0.0,
          0.0,
          0.0,
          0.0,
          0.0,
          0.0,
          0.0,
          0.0,
          0.0,
          0.0,
          0.0,
          0.0,
          0.0,
          0.0,
          0.0,
          0.0,
          0.0,
          0.0,
          0.0,
          0.0,
          0.0,
          0.0,
          0.0,
          0.0,
          0.0,
          0.0,
          0.0,
          0.0,
          0.0,
          0.0,
          0.0,
          0.0,
          0.0,
          0.0,
          0.0,
          0.0,
          0.0,
          0.0,
          0.0,
          0.0,
          0.0,
          0.0,
          0.0,
          0.0,
          0.0,
          0.0,
          0.0,
          0.0,
          0.0,
          0.0,
          0.0,
          0.0,
          0.0,
          0.0,
          0.0,
          0.0,
          0.0,
          0.0,
          0.0,
          0.0,
          0.0,
          0.0,
          0.0,
          0.0,
          0.0,
          0.0,
          0.0,
          0.0,
          0.0,
          0.0,
          0.0,
          0.0,
          0.0,
          0.0,
          0.0,
          0.0,
          0.0,
          0.0,
          0.0,
          0.0,
          0.0,
          0.0,
          0.0,
          0.0,
          0.0,
          0.0,
          0.0,
          0.0,
          0.0,
          0.0,
          0.0,
          0.0,
          0.0,
          0.0,
          0.0,
          0.0,
          0.0,
          0.0,
          0.0,
          0.0,
          0.0,
          0.0,
          0.0,
          0.0,
          0.0,
          0.0,
          0.0,
          0.0,
          0.0,
          0.0,
          0.0,
          0.0,
          0.0,
          0.0,
          0.0,
          0.0,
          0.0,
          0.0,
          0.0,
          0.0,
          0.0,
          0.0,
          0.0,
          0.0,
          0.0,
          0.0,
          0.0,
          0.0,
          0.0,
          0.0,
          0.0,
          0.0,
          0.0,
          0.0,
          0.0,
          0.0,
          0.0,
          0.0,
          0.0,
          0.0,
          0.0,
          0.0,
          0.0,
          0.0,
          0.0,
          0.0,
          0.0,
          0.0,
          0.0,
          0.0,
          0.0,
          0.0,
          0.0,
          0.0,
          0.0,
          0.0,
          0.0,
          0.0,
          0.0,
          0.0,
          0.0,
          0.0,
          0.0,
          0.0,
          0.0,
          0.0,
          0.0,
          0.0,
          0.0,
          0.0,
          0.0,
          0.0,
          0.0,
          0.0,
          0.0,
          0.0,
          0.0,
          0.0,
          0.0,
          0.0,
          0.0,
          0.0,
          0.0,
          0.0,
          0.0,
          0.0,
          0.0,
          0.0,
          0.0,
          0.0,
          0.0,
          0.0,
          0.0,
          0.0,
          0.0,
          0.0,
          0.0,
          0.0,
          0.0,
          0.0,
          0.0,
          0.0,
          0.0,
          0.0,
          0.0,
          0.0,
          0.0,
          0.0,
          0.0,
          0.0,
          0.0,
          0.0,
          0.0,
          0.0,
          0.0,
          0.0,
          0.0,
          0.0,
          0.0,
          0.0,
          0.0,
          0.0,
          0.0,
          0.0,
          0.0,
          0.0,
          0.0,
          0.0,
          0.0,
          0.0,
          0.0,
          0.0,
          0.0,
          0.0,
          0.0,
          0.0,
          0.0,
          0.0,
          0.0,
          0.0,
          0.0,
          0.0,
          0.0,
          0.0,
          0.0,
          0.0,
          0.0,
          0.0,
          0.0,
          0.0,
          0.0,
          0.0,
          0.0,
          0.0,
          0.0,
          0.0,
          0.0,
          0.0,
          0.0,
          0.0,
          0.0,
          0.0,
          0.0,
          0.0,
          0.0,
          0.0
        ],
        [
          0.0,
          0.0,
          0.0,
          0.0,
          0.0,
          0.0,
          0.0,
          0.0,
          0.0,
          0.0,
          0.0,
          0.0,
          0.0,
          0.0,
          0.0,
          0.0,
          0.0,
          0.0,
          0.0,
          0.0,
          0.0,
          0.0,
          0.0,
          0.0,
          0.0,
          0.0,
          0.0,
          0.0,
          0.0,
          0.0,
          0.0,
          0.0,
          0.0,
          0.0,
          0.0,
          0.0,
          0.0,
          0.0,
          0.0,
          0.0,
          0.0,
          0.0,
          0.0,
          0.0,
          0.0,
          0.0,
          0.0,
          0.0,
          0.0,
          0.0,
          0.0,
          0.0,
          0.0,
          0.0,
          0.0,
          0.0,
          0.0,
          0.0,
          0.0,
          0.0,
          0.0,
          0.0,
          0.0,
          0.0,
          0.0,
          0.0,
          0.0,
          0.0,
          0.0,
          0.0,
          0.0,
          0.0,
          0.0,
          0.0,
          0.0,
          0.0,
          0.0,
          0.0,
          0.0,
          0.0,
          0.0,
          0.0,
          0.0,
          0.0,
          0.0,
          0.0,
          0.0,
          0.0,
          0.0,
          0.0,
          0.0,
          0.0,
          0.0,
          0.0,
          0.0,
          0.0,
          0.0,
          0.0,
          0.0,
          0.0,
          0.0,
          0.0,
          0.0,
          0.0,
          0.0,
          0.0,
          0.0,
          0.0,
          0.0,
          0.0,
          0.0,
          0.0,
          0.0,
          0.0,
          0.0,
          0.0,
          0.0,
          0.0,
          0.0,
          0.0,
          0.0,
          0.0,
          0.0,
          0.0,
          0.0,
          0.0,
          0.0,
          0.0,
          0.0,
          0.0,
          0.0,
          0.0,
          0.0,
          0.0,
          0.0,
          0.0,
          0.0,
          0.0,
          0.0,
          0.0,
          0.0,
          0.0,
          0.0,
          0.0,
          0.0,
          0.0,
          0.0,
          0.0,
          0.0,
          0.0,
          0.0,
          0.0,
          0.0,
          0.0,
          0.0,
          0.0,
          0.0,
          0.0,
          0.0,
          0.0,
          0.0,
          0.0,
          0.0,
          0.0,
          0.0,
          0.0,
          0.0,
          0.0,
          0.0,
          0.0,
          0.0,
          0.0,
          0.0,
          0.0,
          0.0,
          0.0,
          0.0,
          0.0,
          0.0,
          0.0,
          0.0,
          0.0,
          0.0,
          0.0,
          0.0,
          0.0,
          0.0,
          0.0,
          0.0,
          0.0,
          0.0,
          0.0,
          0.0,
          0.0,
          0.0,
          0.0,
          0.0,
          0.0,
          0.0,
          0.0,
          0.0,
          0.0,
          0.0,
          0.0,
          0.0,
          0.0,
          0.0,
          0.0,
          0.0,
          0.0,
          0.0,
          0.0,
          0.0,
          0.0,
          0.0,
          0.0,
          0.0,
          0.0,
          0.0,
          0.0,
          0.0,
          0.0,
          0.0,
          0.0,
          0.0,
          0.0,
          0.0,
          0.0,
          0.0,
          0.0,
          0.0,
          0.0,
          0.0,
          0.0,
          0.0,
          0.0,
          0.0,
          0.0,
          0.0,
          0.0,
          0.0,
          0.0,
